15 10
Text -0.031150 -0.034311 -0.006360 0.030749 -0.042783 -0.006278 -0.028445 -0.031730 -0.044338 0.006126
of 0.009360 0.013350 0.022818 -0.008284 0.004332 0.015102 -0.013607 0.008904 0.006108 0.001902
the -0.008020 0.027997 -0.034770 -0.048528 0.010003 0.017744 0.036406 0.009930 -0.018177 0.038729
first -0.010481 -0.014004 -0.047667 -0.021900 -0.004096 0.001132 0.032057 -0.028456 0.005202 -0.010631
document. 0.019605 -0.022610 0.034096 0.028372 -0.032731 0.040765 0.020961 0.029841 0.025172 0.034206
four. 0.029724 -0.001620 -0.033027 0.001690 0.033381 0.034316 -0.003608 -0.007105 0.030660 -0.011143
longer. -0.002639 -0.011201 0.025447 0.027364 0.036225 0.031527 -0.044732 -0.004388 0.049138 -0.031382
three. -0.023204 0.039969 -0.005220 0.030155 0.031003 0.037025 -0.004925 0.017710 0.015781 -0.045959
number 0.047027 0.006695 0.000669 0.046438 -0.046507 -0.027207 -0.006948 -0.042374 -0.037161 0.020471
second 0.044298 0.000418 0.008853 -0.026848 0.037354 -0.003988 0.040360 -0.024781 -0.003836 0.003604
made 0.028563 0.025511 -0.017735 0.039016 -0.015185 0.040601 0.009273 0.030183 0.021077 -0.008954
document 0.045916 -0.005279 0.043562 0.035461 0.007850 0.005716 -0.003316 0.009940 0.011866 0.002340
This -0.009793 -0.032337 -0.018713 0.030114 -0.044476 0.039320 0.002912 -0.016110 -0.029241 -0.026547
is 0.019134 -0.044180 0.029217 -0.026762 0.037216 -0.039106 0.037271 0.039178 0.022705 0.015076
Number 0.039564 -0.017726 0.023362 -0.018163 -0.016950 -0.005280 0.018177 0.042253 -0.003461 -0.036674
